digraph Tree {
node [shape=box] ;
0 [label="X[2] <= 0.5\ngini = 0.441\nsamples = 183\nvalue = [60, 123]"] ;
1 [label="X[1] <= 3.0\ngini = 0.127\nsamples = 88\nvalue = [6, 82]"] ;
0 -> 1 [labeldistance=2.5, labelangle=45, headlabel="True"] ;
2 [label="gini = 0.0\nsamples = 2\nvalue = [2, 0]"] ;
1 -> 2 ;
3 [label="X[3] <= 10.481\ngini = 0.089\nsamples = 86\nvalue = [4, 82]"] ;
1 -> 3 ;
4 [label="gini = 0.0\nsamples = 1\nvalue = [1, 0]"] ;
3 -> 4 ;
5 [label="X[1] <= 49.5\ngini = 0.068\nsamples = 85\nvalue = [3, 82]"] ;
3 -> 5 ;
6 [label="X[3] <= 143.592\ngini = 0.028\nsamples = 71\nvalue = [1, 70]"] ;
5 -> 6 ;
7 [label="gini = 0.0\nsamples = 59\nvalue = [0, 59]"] ;
6 -> 7 ;
8 [label="X[3] <= 152.506\ngini = 0.153\nsamples = 12\nvalue = [1, 11]"] ;
6 -> 8 ;
9 [label="gini = 0.0\nsamples = 1\nvalue = [1, 0]"] ;
8 -> 9 ;
10 [label="gini = 0.0\nsamples = 11\nvalue = [0, 11]"] ;
8 -> 10 ;
11 [label="X[3] <= 40.096\ngini = 0.245\nsamples = 14\nvalue = [2, 12]"] ;
5 -> 11 ;
12 [label="X[1] <= 57.5\ngini = 0.444\nsamples = 3\nvalue = [2, 1]"] ;
11 -> 12 ;
13 [label="gini = 0.0\nsamples = 2\nvalue = [2, 0]"] ;
12 -> 13 ;
14 [label="gini = 0.0\nsamples = 1\nvalue = [0, 1]"] ;
12 -> 14 ;
15 [label="gini = 0.0\nsamples = 11\nvalue = [0, 11]"] ;
11 -> 15 ;
16 [label="X[1] <= 17.5\ngini = 0.491\nsamples = 95\nvalue = [54, 41]"] ;
0 -> 16 [labeldistance=2.5, labelangle=-45, headlabel="False"] ;
17 [label="gini = 0.0\nsamples = 8\nvalue = [0, 8]"] ;
16 -> 17 ;
18 [label="X[1] <= 43.0\ngini = 0.471\nsamples = 87\nvalue = [54, 33]"] ;
16 -> 18 ;
19 [label="X[3] <= 7.85\ngini = 0.499\nsamples = 48\nvalue = [25, 23]"] ;
18 -> 19 ;
20 [label="gini = 0.0\nsamples = 6\nvalue = [6, 0]"] ;
19 -> 20 ;
21 [label="X[1] <= 24.5\ngini = 0.495\nsamples = 42\nvalue = [19, 23]"] ;
19 -> 21 ;
22 [label="X[3] <= 70.323\ngini = 0.245\nsamples = 7\nvalue = [6, 1]"] ;
21 -> 22 ;
23 [label="X[3] <= 58.229\ngini = 0.5\nsamples = 2\nvalue = [1, 1]"] ;
22 -> 23 ;
24 [label="gini = 0.0\nsamples = 1\nvalue = [1, 0]"] ;
23 -> 24 ;
25 [label="gini = 0.0\nsamples = 1\nvalue = [0, 1]"] ;
23 -> 25 ;
26 [label="gini = 0.0\nsamples = 5\nvalue = [5, 0]"] ;
22 -> 26 ;
27 [label="X[1] <= 28.5\ngini = 0.467\nsamples = 35\nvalue = [13, 22]"] ;
21 -> 27 ;
28 [label="X[3] <= 151.29\ngini = 0.219\nsamples = 8\nvalue = [1, 7]"] ;
27 -> 28 ;
29 [label="gini = 0.0\nsamples = 7\nvalue = [0, 7]"] ;
28 -> 29 ;
30 [label="gini = 0.0\nsamples = 1\nvalue = [1, 0]"] ;
28 -> 30 ;
31 [label="X[1] <= 31.5\ngini = 0.494\nsamples = 27\nvalue = [12, 15]"] ;
27 -> 31 ;
32 [label="X[3] <= 54.5\ngini = 0.278\nsamples = 6\nvalue = [5, 1]"] ;
31 -> 32 ;
33 [label="gini = 0.0\nsamples = 4\nvalue = [4, 0]"] ;
32 -> 33 ;
34 [label="X[1] <= 30.0\ngini = 0.5\nsamples = 2\nvalue = [1, 1]"] ;
32 -> 34 ;
35 [label="gini = 0.0\nsamples = 1\nvalue = [1, 0]"] ;
34 -> 35 ;
36 [label="gini = 0.0\nsamples = 1\nvalue = [0, 1]"] ;
34 -> 36 ;
37 [label="X[1] <= 35.5\ngini = 0.444\nsamples = 21\nvalue = [7, 14]"] ;
31 -> 37 ;
38 [label="gini = 0.0\nsamples = 5\nvalue = [0, 5]"] ;
37 -> 38 ;
39 [label="X[3] <= 26.144\ngini = 0.492\nsamples = 16\nvalue = [7, 9]"] ;
37 -> 39 ;
40 [label="gini = 0.0\nsamples = 2\nvalue = [2, 0]"] ;
39 -> 40 ;
41 [label="X[1] <= 39.0\ngini = 0.459\nsamples = 14\nvalue = [5, 9]"] ;
39 -> 41 ;
42 [label="X[3] <= 28.044\ngini = 0.496\nsamples = 11\nvalue = [5, 6]"] ;
41 -> 42 ;
43 [label="gini = 0.0\nsamples = 2\nvalue = [0, 2]"] ;
42 -> 43 ;
44 [label="X[3] <= 84.425\ngini = 0.494\nsamples = 9\nvalue = [5, 4]"] ;
42 -> 44 ;
45 [label="X[3] <= 46.34\ngini = 0.32\nsamples = 5\nvalue = [4, 1]"] ;
44 -> 45 ;
46 [label="gini = 0.0\nsamples = 2\nvalue = [2, 0]"] ;
45 -> 46 ;
47 [label="X[3] <= 52.827\ngini = 0.444\nsamples = 3\nvalue = [2, 1]"] ;
45 -> 47 ;
48 [label="gini = 0.0\nsamples = 1\nvalue = [0, 1]"] ;
47 -> 48 ;
49 [label="gini = 0.0\nsamples = 2\nvalue = [2, 0]"] ;
47 -> 49 ;
50 [label="X[3] <= 136.731\ngini = 0.375\nsamples = 4\nvalue = [1, 3]"] ;
44 -> 50 ;
51 [label="gini = 0.0\nsamples = 2\nvalue = [0, 2]"] ;
50 -> 51 ;
52 [label="X[1] <= 37.0\ngini = 0.5\nsamples = 2\nvalue = [1, 1]"] ;
50 -> 52 ;
53 [label="gini = 0.0\nsamples = 1\nvalue = [0, 1]"] ;
52 -> 53 ;
54 [label="gini = 0.0\nsamples = 1\nvalue = [1, 0]"] ;
52 -> 54 ;
55 [label="gini = 0.0\nsamples = 3\nvalue = [0, 3]"] ;
41 -> 55 ;
56 [label="X[1] <= 47.5\ngini = 0.381\nsamples = 39\nvalue = [29, 10]"] ;
18 -> 56 ;
57 [label="gini = 0.0\nsamples = 11\nvalue = [11, 0]"] ;
56 -> 57 ;
58 [label="X[1] <= 49.5\ngini = 0.459\nsamples = 28\nvalue = [18, 10]"] ;
56 -> 58 ;
59 [label="X[3] <= 99.994\ngini = 0.278\nsamples = 6\nvalue = [1, 5]"] ;
58 -> 59 ;
60 [label="gini = 0.0\nsamples = 5\nvalue = [0, 5]"] ;
59 -> 60 ;
61 [label="gini = 0.0\nsamples = 1\nvalue = [1, 0]"] ;
59 -> 61 ;
62 [label="X[1] <= 75.5\ngini = 0.351\nsamples = 22\nvalue = [17, 5]"] ;
58 -> 62 ;
63 [label="X[1] <= 60.5\ngini = 0.308\nsamples = 21\nvalue = [17, 4]"] ;
62 -> 63 ;
64 [label="X[1] <= 59.0\ngini = 0.426\nsamples = 13\nvalue = [9, 4]"] ;
63 -> 64 ;
65 [label="X[3] <= 43.681\ngini = 0.375\nsamples = 12\nvalue = [9, 3]"] ;
64 -> 65 ;
66 [label="X[1] <= 53.5\ngini = 0.5\nsamples = 6\nvalue = [3, 3]"] ;
65 -> 66 ;
67 [label="gini = 0.0\nsamples = 2\nvalue = [0, 2]"] ;
66 -> 67 ;
68 [label="X[3] <= 33.098\ngini = 0.375\nsamples = 4\nvalue = [3, 1]"] ;
66 -> 68 ;
69 [label="gini = 0.0\nsamples = 3\nvalue = [3, 0]"] ;
68 -> 69 ;
70 [label="gini = 0.0\nsamples = 1\nvalue = [0, 1]"] ;
68 -> 70 ;
71 [label="gini = 0.0\nsamples = 6\nvalue = [6, 0]"] ;
65 -> 71 ;
72 [label="gini = 0.0\nsamples = 1\nvalue = [0, 1]"] ;
64 -> 72 ;
73 [label="gini = 0.0\nsamples = 8\nvalue = [8, 0]"] ;
63 -> 73 ;
74 [label="gini = 0.0\nsamples = 1\nvalue = [0, 1]"] ;
62 -> 74 ;
}